<?xml version="1.0"?>
<opencv_storage>
<stage10>
  <maxWeakCount>13</maxWeakCount>
  <stageThreshold>-1.5726457834243774e+00</stageThreshold>
  <weakClassifiers>
    <_>
      <internalNodes>
        0 -1 158571 -2.1684277802705765e-02</internalNodes>
      <leafValues>
        5.5555558204650879e-01 -7.6325088739395142e-01</leafValues></_>
    <_>
      <internalNodes>
        0 -1 113077 -1.0781902819871902e-03</internalNodes>
      <leafValues>
        1.5990272164344788e-01 -3.6903598904609680e-01</leafValues></_>
    <_>
      <internalNodes>
        0 -1 23628 -1.5243901871144772e-03</internalNodes>
      <leafValues>
        3.9776545763015747e-01 -1.5072721242904663e-01</leafValues></_>
    <_>
      <internalNodes>
        0 -1 102847 2.1543256938457489e-02</internalNodes>
      <leafValues>
        1.0626767575740814e-01 -5.7699251174926758e-01</leafValues></_>
    <_>
      <internalNodes>
        0 -1 6537 -5.3216040134429932e-02</internalNodes>
      <leafValues>
        3.0938199162483215e-01 -1.6245511174201965e-01</leafValues></_>
    <_>
      <internalNodes>
        0 -1 116076 3.0290572904050350e-03</internalNodes>
      <leafValues>
        -1.6903780400753021e-01 3.5026752948760986e-01</leafValues></_>
    <_>
      <internalNodes>
        0 -1 138977 1.2456031981855631e-03</internalNodes>
      <leafValues>
        -2.2784574329853058e-01 2.5843045115470886e-01</leafValues></_>
    <_>
      <internalNodes>
        0 -1 147986 -3.2258681021630764e-03</internalNodes>
      <leafValues>
        2.9360321164131165e-01 -1.9285117089748383e-01</leafValues></_>
    <_>
      <internalNodes>
        0 -1 88543 -4.5681651681661606e-03</internalNodes>
      <leafValues>
        -6.4453279972076416e-01 1.0968371480703354e-01</leafValues></_>
    <_>
      <internalNodes>
        0 -1 160646 -1.8318707589060068e-03</internalNodes>
      <leafValues>
        2.6961359381675720e-01 -1.9883421063423157e-01</leafValues></_>
    <_>
      <internalNodes>
        0 -1 61668 1.8815189599990845e-02</internalNodes>
      <leafValues>
        8.9457131922245026e-02 -8.2114797830581665e-01</leafValues></_>
    <_>
      <internalNodes>
        0 -1 161384 -7.8346738591790199e-03</internalNodes>
      <leafValues>
        -7.3463118076324463e-01 4.9415804445743561e-02</leafValues></_>
    <_>
      <internalNodes>
        0 -1 111015 6.8059616023674607e-04</internalNodes>
      <leafValues>
        -1.7988635599613190e-01 3.4699860215187073e-01</leafValues></_></weakClassifiers></stage10>
</opencv_storage>
