<?xml version="1.0"?>
<opencv_storage>
<stage0>
  <maxWeakCount>5</maxWeakCount>
  <stageThreshold>-1.5719971656799316e+00</stageThreshold>
  <weakClassifiers>
    <_>
      <internalNodes>
        0 -1 14890 -2.7425929903984070e-02</internalNodes>
      <leafValues>
        3.1372550129890442e-01 -8.5755532979965210e-01</leafValues></_>
    <_>
      <internalNodes>
        0 -1 3008 -1.2143897823989391e-02</internalNodes>
      <leafValues>
        4.5793670415878296e-01 -6.5184777975082397e-01</leafValues></_>
    <_>
      <internalNodes>
        0 -1 39123 -7.8112124465405941e-03</internalNodes>
      <leafValues>
        5.3753447532653809e-01 -4.6086844801902771e-01</leafValues></_>
    <_>
      <internalNodes>
        0 -1 272 2.0168516784906387e-02</internalNodes>
      <leafValues>
        -3.2909375429153442e-01 7.0357584953308105e-01</leafValues></_>
    <_>
      <internalNodes>
        0 -1 146033 -1.0497718118131161e-02</internalNodes>
      <leafValues>
        7.5959956645965576e-01 -2.7103468775749207e-01</leafValues></_></weakClassifiers></stage0>
</opencv_storage>
